{"parameters/player_encoder.batch_norm1.bias":{"_type":"histogram","values":[1,0,0,0,0,0,0,0,0,1,0,0,0,1,0,0,0,1,0,0,0,0,0,1,0,1,0,0,2,0,0,1,1,1,1,0,1,1,1,1,2,0,1,0,1,1,2,0,0,1,3,2,0,0,1,0,0,1,0,0,0,0,0,1],"bins":[-0.570225179195404,-0.5619866847991943,-0.5537482500076294,-0.5455097556114197,-0.53727126121521,-0.529032826423645,-0.5207943320274353,-0.5125558376312256,-0.5043174028396606,-0.4960789084434509,-0.4878404140472412,-0.4796019494533539,-0.47136348485946655,-0.46312499046325684,-0.4548865258693695,-0.4466480612754822,-0.43840956687927246,-0.43017107248306274,-0.4219326078891754,-0.4136941432952881,-0.40545564889907837,-0.39721718430519104,-0.3889787197113037,-0.380740225315094,-0.37250176072120667,-0.36426329612731934,-0.3560248017311096,-0.3477863371372223,-0.33954787254333496,-0.33130937814712524,-0.3230709135532379,-0.3148324191570282,-0.30659395456314087,-0.29835548996925354,-0.2901169955730438,-0.2818785309791565,-0.2736400365829468,-0.26540157198905945,-0.2571631073951721,-0.2489246129989624,-0.24068614840507507,-0.23244765400886536,-0.22420918941497803,-0.2159707248210907,-0.20773223042488098,-0.19949376583099365,-0.19125530123710632,-0.1830168068408966,-0.17477834224700928,-0.16653984785079956,-0.15830138325691223,-0.1500629186630249,-0.14182442426681519,-0.13358595967292786,-0.12534748017787933,-0.11710900813341141,-0.10887052863836288,-0.10063205659389496,-0.09239357709884644,-0.08415509760379791,-0.07591662555932999,-0.06767815351486206,-0.05943967401981354,-0.05120119825005531,-0.04296272248029709]},"parameters/player_encoder.conv1.bias":{"bins":[-1.1114572089354624e-06,-1.085507165043964e-06,-1.059557007465628e-06,-1.033606849887292e-06,-1.0076568059957935e-06,-9.817067621042952e-07,-9.557566045259591e-07,-9.298065037910419e-07,-9.038564030561247e-07,-8.779063023212075e-07,-8.519562015862903e-07,-8.26006100851373e-07,-8.000560001164558e-07,-7.741058993815386e-07,-7.481557986466214e-07,-7.222056979117042e-07,-6.96255597176787e-07,-6.703054964418698e-07,-6.443553957069525e-07,-6.184052949720353e-07,-5.924551942371181e-07,-5.665050935022009e-07,-5.405549927672837e-07,-5.146048920323665e-07,-4.886547912974493e-07,-4.6270469056253205e-07,-4.3675458982761484e-07,-4.108044890926976e-07,-3.848543883577804e-07,-3.589042876228632e-07,-3.32954186887946e-07,-3.0700408615302877e-07,-2.810539285746927e-07,-2.551038278397755e-07,-2.2915372710485826e-07,-2.0320362636994105e-07,-1.7725352563502383e-07,-1.5130342490010662e-07,-1.253533241651894e-07,-9.940322343027219e-08,-7.345312269535498e-08,-4.7503021960437763e-08,-2.155292122552055e-08,4.397179509396665e-09,3.034728024431388e-08,5.629738097923109e-08,8.224748171414831e-08,1.0819758244906552e-07,1.3414768318398274e-07,1.6009778391889995e-07,1.8604788465381716e-07,2.1199798538873438e-07,2.379480861236516e-07,2.638981868585688e-07,2.89848287593486e-07,3.1579838832840323e-07,3.4174848906332045e-07,3.6769858979823766e-07,3.936486905331549e-07,4.195987912680721e-07,4.455488920029893e-07,4.714989927379065e-07,4.974490934728237e-07,5.23399194207741e-07,5.493492949426582e-07],"_type":"histogram","values":[1,0,0,0,0,0,0,0,0,0,0,0,0,0,0,0,0,0,0,0,0,0,1,0,0,1,0,0,2,1,1,0,1,0,0,2,0,2,1,0,0,2,0,1,1,3,1,1,0,3,1,2,0,2,0,0,0,0,0,1,0,0,0,1]},"gradients/ball_encoder.rnn.bias_ih_l0":{"values":[1,0,0,0,0,1,0,0,4,3,3,2,2,3,5,3,7,5,11,9,18,30,72,213,379,88,44,28,24,16,14,9,8,2,2,4,3,1,1,2,2,1,1,1,0,0,0,1,0,0,0,0,0,0,0,0,0,0,0,0,0,0,0,1],"bins":[-0.010689917951822281,-0.010245340876281261,-0.009800763800740242,-0.009356187656521797,-0.008911610580980778,-0.008467033505439758,-0.008022456429898739,-0.007577879354357719,-0.007133302744477987,-0.006688725668936968,-0.006244149059057236,-0.005799571983516216,-0.005354994907975197,-0.004910418298095465,-0.004465841222554445,-0.004021264612674713,-0.0035766875371336937,-0.0031321104615926743,-0.002687533386051655,-0.00224295724183321,-0.0017983801662921906,-0.0013538030907511711,-0.0009092260152101517,-0.00046464893966913223,-2.0071864128112793e-05,0.00042450428009033203,0.0008690813556313515,0.001313658431172371,0.0017582355067133904,0.00220281258225441,0.0026473887264728546,0.003091965802013874,0.0035365428775548935,0.003981119953095913,0.004425697028636932,0.004870273172855377,0.005314850248396397,0.005759427323937416,0.0062040043994784355,0.006648581475019455,0.0070931576192379,0.007537734694778919,0.007982311770319939,0.008426888845860958,0.008871465921401978,0.009316042996942997,0.009760619141161442,0.010205196216702461,0.01064977329224348,0.0110943503677845,0.011538926512002945,0.011983504518866539,0.012428080663084984,0.012872657738626003,0.013317234814167023,0.013761810958385468,0.014206388965249062,0.014650965109467506,0.015095542185008526,0.015540119260549545,0.01598469540476799,0.016429273411631584,0.01687384955585003,0.017318427562713623,0.017763003706932068],"_type":"histogram"},"gradients/ball_encoder.rnn.weight_ih_l0":{"_type":"histogram","values":[2,0,0,0,0,0,0,0,0,0,0,1,0,0,0,0,1,0,0,3,2,2,2,2,5,1,8,5,18,58,9964,89,21,9,12,6,4,5,4,2,2,3,1,0,3,2,0,1,0,0,0,0,0,0,1,0,0,0,0,0,0,0,0,1],"bins":[-0.7093363404273987,-0.6861410140991211,-0.6629456281661987,-0.6397503018379211,-0.6165549755096436,-0.5933595895767212,-0.5701642632484436,-0.546968936920166,-0.5237735509872437,-0.5005782246589661,-0.4773828983306885,-0.4541875422000885,-0.4309921860694885,-0.40779685974121094,-0.38460150361061096,-0.3614061772823334,-0.3382108211517334,-0.3150154650211334,-0.29182013869285583,-0.26862478256225586,-0.24542945623397827,-0.2222341001033783,-0.19903874397277832,-0.17584341764450073,-0.15264803171157837,-0.12945270538330078,-0.1062573790550232,-0.0830620527267456,-0.05986666679382324,-0.036671340465545654,-0.013476014137268066,0.009719371795654297,0.03291475772857666,0.05611008405685425,0.07930546998977661,0.1025007963180542,0.1256961226463318,0.14889150857925415,0.17208683490753174,0.19528216123580933,0.21847748756408691,0.24167287349700928,0.26486819982528687,0.28806355595588684,0.3112589120864868,0.3344542384147644,0.3576495945453644,0.38084492087364197,0.40404027700424194,0.4272356331348419,0.4504309594631195,0.4736263155937195,0.49682164192199707,0.5200170278549194,0.543212354183197,0.5664076805114746,0.589603066444397,0.6127983927726746,0.6359937191009521,0.6591891050338745,0.6823844313621521,0.7055797576904297,0.7287750840187073,0.7519704699516296,0.7751657962799072]},"parameters/ball_encoder.rnn.bias_ih_l0":{"values":[1,0,0,0,0,2,1,3,1,2,4,2,5,6,13,12,8,18,17,40,36,46,62,75,63,56,56,49,46,39,33,40,31,33,31,29,22,20,13,15,8,13,13,9,13,7,7,4,3,0,2,1,3,0,3,1,1,1,1,1,1,0,0,2],"bins":[-0.17068205773830414,-0.16493748128414154,-0.15919290482997894,-0.15344832837581635,-0.14770375192165375,-0.14195917546749115,-0.13621461391448975,-0.13047003746032715,-0.12472545355558395,-0.11898087710142136,-0.11323630064725876,-0.10749172419309616,-0.10174715518951416,-0.09600257873535156,-0.09025800228118896,-0.08451342582702637,-0.07876884937286377,-0.07302427291870117,-0.06727969646453857,-0.06153512001037598,-0.05579054355621338,-0.05004597455263138,-0.044301390647888184,-0.038556814193725586,-0.03281225264072418,-0.027067676186561584,-0.021323099732398987,-0.01557852327823639,-0.009833946824073792,-0.004089370369911194,0.0016552060842514038,0.0073997825384140015,0.013144344091415405,0.018888920545578003,0.0246334969997406,0.030378073453903198,0.036122649908065796,0.041867226362228394,0.04761180281639099,0.05335637927055359,0.059100955724716187,0.06484551727771759,0.07059009373188019,0.07633467763662338,0.08207924664020538,0.08782382309436798,0.09356839954853058,0.09931297600269318,0.10505755245685577,0.11080212891101837,0.11654670536518097,0.12229128181934357,0.12803585827350616,0.13378041982650757,0.13952499628067017,0.14526957273483276,0.15101414918899536,0.15675872564315796,0.16250330209732056,0.16824787855148315,0.17399245500564575,0.17973703145980835,0.18548160791397095,0.19122618436813354,0.19697076082229614],"_type":"histogram"},"Stage 30 overs F1-Score":0.8449197860962567,"roc_curve":{"sha256":"95edcd58c259ed284155ea98a8644ead11e8a6f2ad57b839d4598ee4cf5e3461","size":31684,"path":"media/images/roc_curve_58_95edcd58c259ed284155.png","format":"png","width":640,"height":480,"_type":"image-file"},"Stage 35 overs Precision":0.9207920792079208,"_step":58,"gradients/decoder.fc.weight":{"_type":"histogram","values":[1,0,0,0,1,1,1,0,0,0,0,2,1,0,0,3,2,2,3,2,1,4,1,2,5,11,18,15,17,32,62,112,234,56,37,32,21,14,11,6,10,4,12,6,5,3,5,4,0,1,0,1,0,2,1,1,0,0,0,0,1,1,0,1],"bins":[-0.2447066456079483,-0.23708181083202362,-0.22945696115493774,-0.22183212637901306,-0.21420727670192719,-0.2065824419260025,-0.19895759224891663,-0.19133275747299194,-0.18370792269706726,-0.17608307301998138,-0.1684582233428955,-0.16083338856697083,-0.15320855379104614,-0.14558371901512146,-0.13795886933803558,-0.1303340196609497,-0.12270918488502502,-0.11508435010910034,-0.10745950043201447,-0.09983466565608978,-0.0922098159790039,-0.08458498120307922,-0.07696013152599335,-0.06933529675006866,-0.06171046197414398,-0.054085612297058105,-0.04646077752113342,-0.038835927844047546,-0.031211093068122864,-0.023586243391036987,-0.015961408615112305,-0.008336558938026428,-0.0007117390632629395,0.006913095712661743,0.01453794538974762,0.022162780165672302,0.02978762984275818,0.03741246461868286,0.04503731429576874,0.05266214907169342,0.0602869987487793,0.06791183352470398,0.07553666830062866,0.08316151797771454,0.09078635275363922,0.0984112024307251,0.10603603720664978,0.11366088688373566,0.12128572165966034,0.12891057133674622,0.1365354061126709,0.14416024088859558,0.15178509056568146,0.15940992534160614,0.16703477501869202,0.1746596097946167,0.18228444457054138,0.18990929424762726,0.19753414392471313,0.20515897870063782,0.2127838134765625,0.22040866315364838,0.22803349792957306,0.23565834760665894,0.24328318238258362]},"train_loss":0.31061113103741966,"epoch":50,"Stage 25 overs Recall":0.7976190476190477,"parameters/ball_encoder.rnn.weight_ih_l1":{"bins":[-0.42536666989326477,-0.41239336133003235,-0.3994200527667999,-0.3864467442035675,-0.3734734356403351,-0.36050012707710266,-0.34752678871154785,-0.33455348014831543,-0.321580171585083,-0.3086068630218506,-0.29563355445861816,-0.28266024589538574,-0.2696869373321533,-0.2567136287689209,-0.24374032020568848,-0.23076701164245605,-0.21779370307922363,-0.2048203945159912,-0.1918470859527588,-0.17887377738952637,-0.16590046882629395,-0.15292716026306152,-0.1399538516998291,-0.12698054313659668,-0.11400720477104187,-0.10103389620780945,-0.08806058764457703,-0.0750872790813446,-0.06211397051811218,-0.04914066195487976,-0.03616735339164734,-0.023194044828414917,-0.010220736265182495,0.0027525722980499268,0.01572588086128235,0.02869918942451477,0.04167249798774719,0.054645806550979614,0.06761911511421204,0.08059242367744446,0.09356573224067688,0.10653907060623169,0.11951237916946411,0.13248568773269653,0.14545899629592896,0.15843230485916138,0.1714056134223938,0.18437892198562622,0.19735223054885864,0.21032553911209106,0.2232988476753235,0.2362721562385559,0.24924546480178833,0.26221877336502075,0.2751920819282532,0.2881653904914856,0.301138699054718,0.31411200761795044,0.32708531618118286,0.34005865454673767,0.3530319631099701,0.3660052716732025,0.37897858023643494,0.39195188879966736,0.4049251973628998],"_type":"histogram","values":[1,0,1,1,3,4,2,6,8,12,9,18,20,27,28,46,68,78,130,153,253,348,482,677,1080,1501,2206,3316,5036,8212,14285,28876,90659,50512,21969,11786,6830,4384,2895,1952,1301,886,612,427,283,215,143,111,68,61,45,26,19,15,18,9,3,10,8,4,2,0,3,1]},"parameters/decoder.fc.bias":{"bins":[-0.09557567536830902,-0.09557567536830902],"_type":"histogram","values":[1]},"gradients/player_encoder.conv2.bias":{"_type":"histogram","values":[1,0,0,0,2,0,0,0,0,0,0,0,0,0,0,1,4,0,2,0,2,0,0,0,3,0,0,0,4,0,1,2,7,1,1,1,6,3,2,1,6,0,2,0,2,0,1,0,2,0,0,0,3,0,0,0,2,0,0,0,0,0,1,1],"bins":[-1.862645149230957e-09,-1.8044374883174896e-09,-1.7462298274040222e-09,-1.6880221664905548e-09,-1.6298145055770874e-09,-1.57160684466362e-09,-1.5133991837501526e-09,-1.4551915228366852e-09,-1.3969838619232178e-09,-1.3387762010097504e-09,-1.280568540096283e-09,-1.2223608791828156e-09,-1.1641532182693481e-09,-1.1059455573558807e-09,-1.0477378964424133e-09,-9.89530235528946e-10,-9.313225746154785e-10,-8.731149137020111e-10,-8.149072527885437e-10,-7.566995918750763e-10,-6.984919309616089e-10,-6.402842700481415e-10,-5.820766091346741e-10,-5.238689482212067e-10,-4.656612873077393e-10,-4.0745362639427185e-10,-3.4924596548080444e-10,-2.9103830456733704e-10,-2.3283064365386963e-10,-1.7462298274040222e-10,-1.1641532182693481e-10,-5.820766091346741e-11,0,5.820766091346741e-11,1.1641532182693481e-10,1.7462298274040222e-10,2.3283064365386963e-10,2.9103830456733704e-10,3.4924596548080444e-10,4.0745362639427185e-10,4.656612873077393e-10,5.238689482212067e-10,5.820766091346741e-10,6.402842700481415e-10,6.984919309616089e-10,7.566995918750763e-10,8.149072527885437e-10,8.731149137020111e-10,9.313225746154785e-10,9.89530235528946e-10,1.0477378964424133e-09,1.1059455573558807e-09,1.1641532182693481e-09,1.2223608791828156e-09,1.280568540096283e-09,1.3387762010097504e-09,1.3969838619232178e-09,1.4551915228366852e-09,1.5133991837501526e-09,1.57160684466362e-09,1.6298145055770874e-09,1.6880221664905548e-09,1.7462298274040222e-09,1.8044374883174896e-09,1.862645149230957e-09]},"parameters/player_encoder.conv1.weight":{"_type":"histogram","values":[1,0,1,0,1,2,1,1,1,1,1,3,2,4,2,5,7,6,2,5,4,3,5,3,7,6,5,7,3,5,6,6,8,13,5,3,6,8,3,6,7,7,6,6,3,2,7,9,6,6,3,7,8,9,3,8,7,5,4,2,5,3,3,4],"bins":[-0.5266382098197937,-0.5134228467941284,-0.5002074837684631,-0.48699209094047546,-0.4737766981124878,-0.4605613350868225,-0.4473459720611572,-0.43413057923316956,-0.4209151864051819,-0.4076998233795166,-0.3944844603538513,-0.38126906752586365,-0.36805370450019836,-0.3548383116722107,-0.3416229486465454,-0.3284075856208801,-0.31519219279289246,-0.3019767999649048,-0.2887614369392395,-0.2755460739135742,-0.26233068108558655,-0.24911531805992126,-0.2358999252319336,-0.2226845622062683,-0.20946919918060303,-0.19625380635261536,-0.18303844332695007,-0.1698230504989624,-0.15660768747329712,-0.14339229464530945,-0.13017693161964417,-0.1169615387916565,-0.10374614596366882,-0.09053078293800354,-0.07731539011001587,-0.06410002708435059,-0.050884634256362915,-0.03766927123069763,-0.02445387840270996,-0.011238515377044678,0.001976877450942993,0.015192240476608276,0.02840760350227356,0.04162299633026123,0.054838359355926514,0.06805375218391418,0.08126911520957947,0.09448449313640594,0.10769987106323242,0.1209152489900589,0.13413062691688538,0.14734600484371185,0.16056138277053833,0.1737767457962036,0.1869921237230301,0.20020750164985657,0.21342287957668304,0.22663825750350952,0.239853635430336,0.2530690133571625,0.26628437638282776,0.27949976921081543,0.2927151322364807,0.3059305250644684,0.31914588809013367]},"Overall Recall":0.7559523809523809,"parameters/ball_encoder.rnn.bias_hh_l0":{"_type":"histogram","values":[3,1,0,3,0,1,5,0,6,6,13,12,5,13,19,32,44,36,49,61,66,59,61,50,46,49,36,44,23,33,29,22,32,23,12,12,17,13,14,10,13,8,3,7,7,5,1,6,0,2,1,2,2,2,1,0,0,0,1,0,0,0,1,2],"bins":[-0.14447937905788422,-0.13901081681251526,-0.1335422694683075,-0.12807370722293854,-0.12260514497756958,-0.11713658273220062,-0.11166802793741226,-0.1061994731426239,-0.10073091089725494,-0.09526234865188599,-0.08979379385709763,-0.08432523906230927,-0.07885667681694031,-0.07338811457157135,-0.06791955977678299,-0.06245100498199463,-0.05698244273662567,-0.051513880491256714,-0.04604532569646835,-0.04057677090167999,-0.035108208656311035,-0.029639646410942078,-0.024171091616153717,-0.018702536821365356,-0.013233974575996399,-0.007765412330627441,-0.002296850085258484,0.00317169725894928,0.008640259504318237,0.014108821749687195,0.01957736909389496,0.025045931339263916,0.030514493584632874,0.03598305583000183,0.04145161807537079,0.04692016541957855,0.05238872766494751,0.05785728991031647,0.06332583725452423,0.06879439949989319,0.07426296174526215,0.0797315239906311,0.08520007878541946,0.09066863358020782,0.09613719582557678,0.10160575807094574,0.1070743128657341,0.11254286766052246,0.11801142990589142,0.12347999215126038,0.12894853949546814,0.1344171017408371,0.13988566398620605,0.145354226231575,0.15082278847694397,0.15629133582115173,0.1617598980665207,0.16722846031188965,0.1726970076560974,0.17816556990146637,0.18363413214683533,0.18910269439220428,0.19457125663757324,0.200039803981781,0.20550836622714996]},"parameters/player_encoder.fc1.weight":{"bins":[-0.032274387776851654,-0.031265806406736374,-0.030257226899266243,-0.029248645529150963,-0.028240066021680832,-0.027231484651565552,-0.02622290328145027,-0.02521432191133499,-0.02420574240386486,-0.02319716289639473,-0.02218858152627945,-0.02118000015616417,-0.02017141878604889,-0.019162839278578758,-0.018154257908463478,-0.017145678400993347,-0.016137097030878067,-0.015128515660762787,-0.014119936153292656,-0.013111354783177376,-0.012102775275707245,-0.011094193905591965,-0.010085612535476685,-0.009077033028006554,-0.008068451657891273,-0.007059870287775993,-0.006051290780305862,-0.005042709410190582,-0.004034128040075302,-0.003025548532605171,-0.002016967162489891,-0.0010083876550197601,1.9744038581848145e-07,0.0010087788105010986,0.0020173583179712296,0.0030259396880865097,0.004034519195556641,0.005043100565671921,0.006051681935787201,0.007060261443257332,0.008068842813372612,0.009077424183487892,0.010086003690958023,0.011094585061073303,0.012103166431188583,0.013111745938658714,0.014120327308773994,0.015128906816244125,0.016137488186359406,0.017146069556474686,0.018154649063944817,0.019163230434060097,0.020171809941530228,0.021180391311645508,0.022188972681760788,0.023197554051876068,0.0242061335593462,0.02521471306681633,0.02622329443693161,0.02723187580704689,0.02824045717716217,0.0292490366846323,0.03025761805474758,0.03126619756221771,0.03227477893233299],"_type":"histogram","values":[3892,3889,3769,3810,3840,3786,3860,3860,3921,3850,3811,3808,3801,3897,3811,3856,3857,3947,3885,3812,3847,3820,3799,3820,3822,3859,3798,3875,3901,3899,3867,3749,3848,3828,3803,3829,3909,3839,3802,3874,3772,3947,3882,3791,3788,3881,3986,3818,3846,3899,3760,3774,3791,3860,3987,3786,3869,3813,3766,3761,3914,3828,3715,3776]},"Overall F1-Score":0.8327868852459016,"Stage 25 overs Precision":0.9436619718309859,"Stage 30 overs Recall":0.7745098039215687,"parameters/team_encoder.batch_norm1.bias":{"_type":"histogram","values":[1,0,0,0,0,0,2,5,3,0,3,1,4,2,1,2,5,11,3,3,5,5,7,7,7,5,4,14,6,10,7,6,6,4,4,8,12,6,12,6,3,7,5,6,1,8,10,3,3,1,2,5,3,4,0,2,3,0,1,0,1,0,0,1],"bins":[-0.39691001176834106,-0.38944923877716064,-0.38198843598365784,-0.3745276629924774,-0.3670668601989746,-0.3596060872077942,-0.3521452844142914,-0.34468451142311096,-0.33722370862960815,-0.32976293563842773,-0.3223021626472473,-0.3148413598537445,-0.3073805570602417,-0.2999197840690613,-0.29245901107788086,-0.28499820828437805,-0.27753743529319763,-0.2700766324996948,-0.2626158595085144,-0.255155086517334,-0.24769428372383118,-0.24023349583148956,-0.23277270793914795,-0.22531192004680634,-0.21785113215446472,-0.2103903442621231,-0.2029295563697815,-0.19546878337860107,-0.18800799548625946,-0.18054720759391785,-0.17308641970157623,-0.16562563180923462,-0.1581648290157318,-0.1507040560245514,-0.14324325323104858,-0.13578248023986816,-0.12832167744636536,-0.12086089700460434,-0.11340012401342392,-0.1059393361210823,-0.09847854822874069,-0.09101776033639908,-0.08355697244405746,-0.07609618455171585,-0.06863539665937424,-0.06117460876703262,-0.05371382087469101,-0.046253032982349396,-0.03879225254058838,-0.031331464648246765,-0.02387067675590515,-0.016409896314144135,-0.00894910842180252,-0.001488320529460907,0.005972467362880707,0.01343325525522232,0.020894039422273636,0.02835482731461525,0.035815611481666565,0.04327639937400818,0.05073718726634979,0.05819797143340111,0.06565875560045242,0.07311954349279404,0.08058033138513565]},"Stage 20 overs F1-Score":0.8403361344537815,"Stage 40 overs Accuracy":0.8541666666666666,"parameters/player_encoder.batch_norm2.weight":{"bins":[0.5333235263824463,0.5406087040901184,0.5478939414024353,0.5551791191101074,0.5624642968177795,0.5697495341300964,0.5770347118377686,0.5843198895454407,0.5916051268577576,0.5988903045654297,0.6061754822731018,0.6134607195854187,0.6207458972930908,0.6280310750007629,0.6353163123130798,0.642601490020752,0.6498866677284241,0.657171905040741,0.6644570827484131,0.6717422604560852,0.6790274381637573,0.6863126754760742,0.6935978531837463,0.7008830308914185,0.7081682682037354,0.7154534459114075,0.7227386236190796,0.7300238609313965,0.7373090386390686,0.7445942163467407,0.7518794536590576,0.7591646313667297,0.7664498090744019,0.7737350463867188,0.7810202240943909,0.788305401802063,0.7955906391143799,0.802875816822052,0.8101609945297241,0.817446231842041,0.8247314095497131,0.8320165872573853,0.8393018245697021,0.8465870022773743,0.8538721799850464,0.8611574172973633,0.8684425950050354,0.8757277727127075,0.8830130100250244,0.8902981877326965,0.8975833654403687,0.9048686027526855,0.9121537804603577,0.9194389581680298,0.9267241954803467,0.9340093731880188,0.9412945508956909,0.9485797882080078,0.9558649659156799,0.963150143623352,0.970435380935669,0.9777205586433411,0.9850057363510132,0.9922909736633301,0.9995761513710022],"_type":"histogram","values":[1,0,0,1,1,0,0,0,0,0,1,0,0,0,0,0,0,1,2,0,1,1,2,1,1,1,2,2,0,0,2,2,3,1,2,3,1,3,1,2,2,1,5,2,0,2,1,0,3,2,0,2,0,1,1,1,0,0,0,1,0,1,0,1]},"parameters/ball_encoder.rnn.weight_ih_l0":{"values":[3,0,0,2,1,0,3,2,1,8,7,10,5,8,11,14,14,11,15,19,23,26,35,46,88,125,285,563,1065,2842,2692,931,541,317,161,109,43,35,31,13,13,11,13,11,8,8,13,8,6,11,5,3,6,1,5,1,3,2,1,1,4,0,0,1],"bins":[-0.6507909297943115,-0.6291729211807251,-0.6075549721717834,-0.585936963558197,-0.5643189549446106,-0.5427009463310242,-0.5210829973220825,-0.4994649887084961,-0.47784698009490967,-0.45622900128364563,-0.4346110224723816,-0.41299301385879517,-0.39137503504753113,-0.3697570264339447,-0.34813904762268066,-0.32652103900909424,-0.3049030601978302,-0.28328508138656616,-0.26166707277297974,-0.2400490939617157,-0.21843108534812927,-0.19681310653686523,-0.1751950979232788,-0.15357711911201477,-0.13195914030075073,-0.1103411316871643,-0.08872312307357788,-0.06710517406463623,-0.045487165451049805,-0.02386915683746338,-0.002251148223876953,0.019366800785064697,0.04098480939865112,0.06260281801223755,0.0842207670211792,0.10583877563476562,0.12745678424835205,0.14907479286193848,0.17069274187088013,0.19231075048446655,0.21392875909805298,0.23554673790931702,0.25716471672058105,0.2787827253341675,0.3004007041454315,0.32201871275901794,0.343636691570282,0.3652547001838684,0.38687267899513245,0.4084906578063965,0.4301086664199829,0.45172664523124695,0.4733446538448334,0.4949626326560974,0.5165806412696838,0.5381985902786255,0.5598165988922119,0.5814346075057983,0.6030526161193848,0.6246705651283264,0.6462885737419128,0.6679065823554993,0.6895245909690857,0.7111425399780273,0.7327605485916138],"_type":"histogram"},"parameters/player_encoder.fc1.bias":{"bins":[-0.032256755977869034,-0.031248483806848526,-0.030240211635828018,-0.02923194132745266,-0.028223669156432152,-0.027215396985411644,-0.026207126677036285,-0.025198854506015778,-0.02419058233499527,-0.023182310163974762,-0.022174037992954254,-0.021165767684578896,-0.020157495513558388,-0.01914922334253788,-0.01814095303416252,-0.017132680863142014,-0.016124408692121506,-0.015116136521100998,-0.01410786435008049,-0.013099594041705132,-0.012091321870684624,-0.011083049699664116,-0.010074779391288757,-0.00906650722026825,-0.008058235049247742,-0.007049962878227234,-0.006041690707206726,-0.0050334203988313675,-0.00402514822781086,-0.003016876056790352,-0.0020086057484149933,-0.0010003335773944855,7.938593626022339e-06,0.0010162107646465302,0.002024482935667038,0.0030327532440423965,0.004041025415062904,0.005049297586083412,0.006057567894458771,0.0070658400654792786,0.008074112236499786,0.009082384407520294,0.010090656578540802,0.01109892688691616,0.012107199057936668,0.013115471228957176,0.014123741537332535,0.015132013708353043,0.01614028587937355,0.017148558050394058,0.018156830221414566,0.019165100529789925,0.020173372700810432,0.02118164487183094,0.0221899151802063,0.023198187351226807,0.024206459522247314,0.025214731693267822,0.02622300386428833,0.02723127417266369,0.028239546343684196,0.029247818514704704,0.030256088823080063,0.03126436099410057,0.03227263316512108],"_type":"histogram","values":[4,2,6,4,1,7,3,1,3,4,2,1,1,5,2,2,5,2,6,1,4,4,2,1,6,3,2,4,5,6,5,3,6,3,4,1,3,8,4,8,4,2,7,5,2,6,7,4,5,3,4,2,2,6,7,5,6,5,7,8,5,2,4,4]},"gradients/team_encoder.batch_norm1.bias":{"values":[1,0,0,0,0,0,0,1,1,2,0,1,0,3,0,3,2,0,1,4,1,3,3,2,14,8,7,13,36,71,18,11,8,7,6,4,3,2,1,3,3,3,0,2,0,1,0,0,1,1,1,1,0,0,0,0,1,0,0,0,0,1,0,1],"bins":[-0.01698211394250393,-0.01639704965054989,-0.0158119834959507,-0.015226919203996658,-0.014641853980720043,-0.014056788757443428,-0.013471724465489388,-0.012886659242212772,-0.012301594018936157,-0.011716528795659542,-0.011131463572382927,-0.010546399280428886,-0.009961334057152271,-0.009376268833875656,-0.008791204541921616,-0.008206139318645,-0.007621074095368385,-0.00703600887209177,-0.006450943648815155,-0.0058658793568611145,-0.005280814133584499,-0.004695748910307884,-0.004110684618353844,-0.0035256193950772285,-0.0029405541718006134,-0.0023554889485239983,-0.0017704237252473831,-0.0011853594332933426,-0.0006002951413393021,-1.5228986740112305e-05,0.0005698353052139282,0.001154901459813118,0.0017399638891220093,0.00232502818107605,0.0029100943356752396,0.00349515862762928,0.00408022478222847,0.00466528907418251,0.005250353366136551,0.005835418589413166,0.006420483812689781,0.007005549035966396,0.0075906142592430115,0.008175678551197052,0.008760743774473667,0.009345808997750282,0.009930873289704323,0.010515938512980938,0.011101003736257553,0.011686068959534168,0.012271134182810783,0.012856198474764824,0.013441263698041439,0.014026328921318054,0.014611393213272095,0.01519645843654871,0.015781523659825325,0.016366589814424515,0.016951654106378555,0.017536718398332596,0.018121782690286636,0.018706848844885826,0.019291913136839867,0.019876979291439056,0.020462043583393097],"_type":"histogram"},"parameters/player_encoder.batch_norm1.weight":{"_type":"histogram","values":[1,0,0,0,0,0,0,1,1,0,0,1,1,2,0,0,0,0,2,1,1,1,1,0,1,1,0,0,2,0,0,2,1,0,0,0,0,0,1,2,2,0,0,1,0,0,0,1,0,0,0,1,0,0,1,1,0,0,0,1,0,0,0,1],"bins":[0.5906116962432861,0.5995274186134338,0.6084430813789368,0.6173588037490845,0.6262745261192322,0.6351901888847351,0.6441059112548828,0.6530216336250305,0.6619373559951782,0.6708530187606812,0.6797687411308289,0.6886844635009766,0.6976001262664795,0.7065158486366272,0.7154315710067749,0.7243472337722778,0.7332629561424255,0.7421786785125732,0.7510943412780762,0.7600100636482239,0.7689257860183716,0.7778414487838745,0.7867571711540222,0.7956728935241699,0.8045885562896729,0.8135042786598206,0.8224200010299683,0.8313356637954712,0.8402513861656189,0.8491671085357666,0.8580827713012695,0.866998553276062,0.8759142160415649,0.8848298788070679,0.8937456607818604,0.9026613235473633,0.911577045917511,0.9204927682876587,0.9294084310531616,0.9383241534233093,0.947239875793457,0.95615553855896,0.9650712609291077,0.9739869832992554,0.9829026460647583,0.991818368434906,1.0007340908050537,1.0096497535705566,1.0185654163360596,1.027481198310852,1.036396861076355,1.0453126430511475,1.0542283058166504,1.0631439685821533,1.0720597505569458,1.0809754133224487,1.0898910760879517,1.0988068580627441,1.107722520828247,1.11663818359375,1.1255539655685425,1.1344696283340454,1.1433852910995483,1.1523010730743408,1.1612167358398438]},"Overall Precision":0.927007299270073,"Stage 30 overs Precision":0.9294117647058824,"gradients/team_encoder.fc1.bias":{"values":[1,0,0,0,0,0,0,0,0,0,0,0,0,0,0,0,5,0,0,0,1,0,2,0,3,0,1,0,7,5,19,46,120,13,4,8,6,1,3,0,3,0,1,0,1,0,1,0,3,0,0,0,0,0,0,0,1,0,0,0,0,0,0,1],"bins":[-4.656612873077393e-10,-4.511093720793724e-10,-4.3655745685100555e-10,-4.220055416226387e-10,-4.0745362639427185e-10,-3.92901711165905e-10,-3.7834979593753815e-10,-3.637978807091713e-10,-3.4924596548080444e-10,-3.346940502524376e-10,-3.2014213502407074e-10,-3.055902197957039e-10,-2.9103830456733704e-10,-2.764863893389702e-10,-2.6193447411060333e-10,-2.473825588822365e-10,-2.3283064365386963e-10,-2.1827872842550278e-10,-2.0372681319713593e-10,-1.8917489796876907e-10,-1.7462298274040222e-10,-1.6007106751203537e-10,-1.4551915228366852e-10,-1.3096723705530167e-10,-1.1641532182693481e-10,-1.0186340659856796e-10,-8.731149137020111e-11,-7.275957614183426e-11,-5.820766091346741e-11,-4.3655745685100555e-11,-2.9103830456733704e-11,-1.4551915228366852e-11,0,1.4551915228366852e-11,2.9103830456733704e-11,4.3655745685100555e-11,5.820766091346741e-11,7.275957614183426e-11,8.731149137020111e-11,1.0186340659856796e-10,1.1641532182693481e-10,1.3096723705530167e-10,1.4551915228366852e-10,1.6007106751203537e-10,1.7462298274040222e-10,1.8917489796876907e-10,2.0372681319713593e-10,2.1827872842550278e-10,2.3283064365386963e-10,2.473825588822365e-10,2.6193447411060333e-10,2.764863893389702e-10,2.9103830456733704e-10,3.055902197957039e-10,3.2014213502407074e-10,3.346940502524376e-10,3.4924596548080444e-10,3.637978807091713e-10,3.7834979593753815e-10,3.92901711165905e-10,4.0745362639427185e-10,4.220055416226387e-10,4.3655745685100555e-10,4.511093720793724e-10,4.656612873077393e-10],"_type":"histogram"},"Stage 25 overs Accuracy":0.86,"Stage 40 overs Precision":0.9327731092436975,"parameters/ball_encoder.rnn.bias_ih_l1":{"_type":"histogram","values":[1,0,0,0,0,0,0,0,0,0,0,0,0,0,1,0,1,3,9,5,7,7,10,15,16,21,25,27,30,34,49,38,66,54,58,83,53,47,47,54,54,34,27,31,18,17,11,10,9,13,10,4,5,1,7,5,0,1,3,1,1,0,0,1],"bins":[-0.292949914932251,-0.2855982482433319,-0.27824655175209045,-0.2708948850631714,-0.2635432183742523,-0.25619152188301086,-0.2488398551940918,-0.24148817360401154,-0.23413649201393127,-0.2267848253250122,-0.21943314373493195,-0.21208146214485168,-0.20472979545593262,-0.19737811386585236,-0.1900264322757721,-0.18267476558685303,-0.17532308399677277,-0.1679714024066925,-0.16061973571777344,-0.15326805412769318,-0.14591637253761292,-0.13856470584869385,-0.1312130242586136,-0.12386134266853333,-0.11650967597961426,-0.109157994389534,-0.10180631279945374,-0.09445463120937347,-0.0871029645204544,-0.07975128293037415,-0.07239960134029388,-0.06504793465137482,-0.057696253061294556,-0.050344571471214294,-0.04299290478229523,-0.035641223192214966,-0.028289541602134705,-0.020937874913215637,-0.013586193323135376,-0.006234511733055115,0.0011171698570251465,0.008468836545944214,0.015820518136024475,0.023172199726104736,0.030523866415023804,0.037875548005104065,0.045227229595184326,0.05257890373468399,0.059930577874183655,0.06728225201368332,0.07463393360376358,0.08198560774326324,0.0893372893333435,0.09668896347284317,0.10404063761234283,0.1113923192024231,0.11874399334192276,0.12609566748142242,0.13344734907150269,0.14079901576042175,0.14815069735050201,0.15550237894058228,0.16285406053066254,0.1702057272195816,0.17755740880966187]},"Stage 45 overs Precision":0.9365079365079365,"gradients/player_encoder.batch_norm1.weight":{"_type":"histogram","values":[1,0,0,0,0,0,0,0,0,0,1,0,0,0,0,0,0,0,0,0,0,0,0,1,0,0,1,1,1,1,0,0,0,1,1,4,1,0,0,2,0,1,0,1,0,3,1,0,0,0,0,3,1,2,0,0,1,1,0,0,0,0,0,2],"bins":[-0.020510941743850708,-0.01999375782907009,-0.019476572051644325,-0.01895938813686371,-0.018442202359437943,-0.017925018444657326,-0.01740783266723156,-0.016890648752450943,-0.016373462975025177,-0.01585627906024456,-0.015339094214141369,-0.014821909368038177,-0.01430472545325756,-0.013787539675831795,-0.013270355761051178,-0.012753170914947987,-0.012235986068844795,-0.011718801222741604,-0.011201616376638412,-0.010684431530535221,-0.01016724668443203,-0.009650062769651413,-0.009132877923548222,-0.00861569307744503,-0.008098508231341839,-0.0075813233852386475,-0.007064138539135456,-0.006546953693032265,-0.006029769778251648,-0.005512584932148457,-0.004995400086045265,-0.004478214308619499,-0.0039610303938388824,-0.0034438464790582657,-0.0029266607016324997,-0.0024094758555293083,-0.001892291009426117,-0.0013751070946455002,-0.0008579222485423088,-0.00034073740243911743,0.00017644744366407394,0.0006936322897672653,0.0012108171358704567,0.001728001981973648,0.002245185896754265,0.002762370742857456,0.0032795555889606476,0.003796740435063839,0.00431392528116703,0.004831110127270222,0.005348294973373413,0.005865479353815317,0.0063826641999185085,0.0068998490460217,0.007417033426463604,0.007934218272566795,0.008451403118669987,0.008968587964773178,0.00948577281087637,0.01000295765697956,0.010520141571760178,0.011037326417863369,0.01155451126396656,0.012071696110069752,0.012588880956172943]},"gradients/ball_encoder.rnn.bias_hh_l0":{"values":[1,0,0,0,0,1,0,0,4,3,3,2,2,3,5,3,7,5,11,9,18,30,72,213,379,88,44,28,24,16,14,9,8,2,2,4,3,1,1,2,2,1,1,1,0,0,0,1,0,0,0,0,0,0,0,0,0,0,0,0,0,0,0,1],"bins":[-0.010689917951822281,-0.010245340876281261,-0.009800763800740242,-0.009356187656521797,-0.008911610580980778,-0.008467033505439758,-0.008022456429898739,-0.007577879354357719,-0.007133302744477987,-0.006688725668936968,-0.006244149059057236,-0.005799571983516216,-0.005354994907975197,-0.004910418298095465,-0.004465841222554445,-0.004021264612674713,-0.0035766875371336937,-0.0031321104615926743,-0.002687533386051655,-0.00224295724183321,-0.0017983801662921906,-0.0013538030907511711,-0.0009092260152101517,-0.00046464893966913223,-2.0071864128112793e-05,0.00042450428009033203,0.0008690813556313515,0.001313658431172371,0.0017582355067133904,0.00220281258225441,0.0026473887264728546,0.003091965802013874,0.0035365428775548935,0.003981119953095913,0.004425697028636932,0.004870273172855377,0.005314850248396397,0.005759427323937416,0.0062040043994784355,0.006648581475019455,0.0070931576192379,0.007537734694778919,0.007982311770319939,0.008426888845860958,0.008871465921401978,0.009316042996942997,0.009760619141161442,0.010205196216702461,0.01064977329224348,0.0110943503677845,0.011538926512002945,0.011983504518866539,0.012428080663084984,0.012872657738626003,0.013317234814167023,0.013761810958385468,0.014206388965249062,0.014650965109467506,0.015095542185008526,0.015540119260549545,0.01598469540476799,0.016429273411631584,0.01687384955585003,0.017318427562713623,0.017763003706932068],"_type":"histogram"},"val_accuracy":83.98058252427184,"Stage 20 overs Recall":0.7575757575757576,"parameters/team_encoder.fc1.bias":{"_type":"histogram","values":[2,1,1,0,0,2,0,2,1,3,5,10,17,127,42,14,13,7,3,1,0,0,0,1,0,0,0,1,1,0,0,0,0,0,0,0,0,0,0,0,1,0,0,0,0,0,0,0,0,0,0,0,0,0,0,0,0,0,0,0,0,0,0,1],"bins":[-9.808146387513261e-06,-9.097179827222135e-06,-8.386212357436307e-06,-7.67524579714518e-06,-6.964279236854054e-06,-6.253312221815577e-06,-5.5423452067770995e-06,-4.831378646485973e-06,-4.120411631447496e-06,-3.4094446164090186e-06,-2.6984780561178923e-06,-1.987511495826766e-06,-1.2765440260409378e-06,-5.655774657498114e-07,1.45389094541315e-07,8.563565643271431e-07,1.5673231246182695e-06,2.278289684909396e-06,2.989257154695224e-06,3.7002237149863504e-06,4.411190275277477e-06,5.122157745063305e-06,5.8331233958597295e-06,6.544091775140259e-06,7.255058335431386e-06,7.966024895722512e-06,8.676991456013639e-06,9.387958016304765e-06,1.0098924576595891e-05,1.0809892955876421e-05,1.1520859516167548e-05,1.2231826076458674e-05,1.2942791727255099e-05,1.3653758287546225e-05,1.4364724847837351e-05,1.5075691408128478e-05,1.5786659787409008e-05,1.6497626347700134e-05,1.720859290799126e-05,1.7919559468282387e-05,1.8630526028573513e-05,1.934149258886464e-05,2.005246096814517e-05,2.0763425709446892e-05,2.1474394088727422e-05,2.218536064901855e-05,2.2896327209309675e-05,2.3607295588590205e-05,2.431826214888133e-05,2.5029228709172457e-05,2.5740195269463584e-05,2.645116182975471e-05,2.7162128390045837e-05,2.7873094950336963e-05,2.858406151062809e-05,2.9295028070919216e-05,3.0005996450199746e-05,3.071696119150147e-05,3.14279313897714e-05,3.213889795006253e-05,3.2849864510353655e-05,3.356083107064478e-05,3.427179763093591e-05,3.4982764191227034e-05,3.569373075151816e-05]},"gradients/player_encoder.conv1.bias":{"_type":"histogram","values":[1,0,0,0,0,0,0,0,0,0,0,0,0,0,0,0,0,0,1,1,0,0,2,0,1,0,2,3,2,1,2,2,2,4,0,2,0,4,0,0,1,0,0,0,0,0,0,0,0,0,0,0,0,0,0,0,0,0,0,0,0,0,0,1],"bins":[-5.820766091346741e-11,-5.6274984672199935e-11,-5.434230843093246e-11,-5.240963218966499e-11,-5.047695594839752e-11,-4.8544279707130045e-11,-4.661160346586257e-11,-4.46789272245951e-11,-4.274625098332763e-11,-4.0813574742060155e-11,-3.888089850079268e-11,-3.694822225952521e-11,-3.501554601825774e-11,-3.3082869776990265e-11,-3.115019353572279e-11,-2.921751729445532e-11,-2.7284841053187847e-11,-2.5352164811920375e-11,-2.3419488570652902e-11,-2.148681232938543e-11,-1.9554136088117957e-11,-1.7621459846850485e-11,-1.5688783605583012e-11,-1.375610736431554e-11,-1.1823431123048067e-11,-9.890754881780595e-12,-7.958078640513122e-12,-6.0254023992456496e-12,-4.092726157978177e-12,-2.1600499167107046e-12,-2.2737367544323206e-13,1.7053025658242404e-12,3.637978807091713e-12,5.5706550483591855e-12,7.503331289626658e-12,9.43600753089413e-12,1.1368683772161603e-11,1.3301360013429075e-11,1.5234036254696548e-11,1.716671249596402e-11,1.9099388737231493e-11,2.1032064978498966e-11,2.2964741219766438e-11,2.489741746103391e-11,2.6830093702301383e-11,2.8762769943568856e-11,3.069544618483633e-11,3.26281224261038e-11,3.456079866737127e-11,3.6493474908638746e-11,3.842615114990622e-11,4.035882739117369e-11,4.229150363244116e-11,4.4224179873708636e-11,4.615685611497611e-11,4.808953235624358e-11,5.002220859751105e-11,5.1954884838778526e-11,5.3887561080046e-11,5.582023732131347e-11,5.775291356258094e-11,5.968558980384842e-11,6.161826604511589e-11,6.355094228638336e-11,6.548361852765083e-11]},"train_accuracy":85.55825242718447,"_runtime":710.7030064,"gradients/player_encoder.conv2.weight":{"bins":[-0.019022462889552116,-0.018353205174207687,-0.01768394745886326,-0.01701468788087368,-0.01634543016552925,-0.015676172450184822,-0.015006914734840393,-0.01433765608817339,-0.013668397441506386,-0.012999139726161957,-0.012329882010817528,-0.011660623364150524,-0.010991365648806095,-0.010322107002139091,-0.009652849286794662,-0.008983590640127659,-0.00831433292478323,-0.007645075209438801,-0.006975816562771797,-0.006306558847427368,-0.0056373002007603645,-0.0049680424854159355,-0.004298783838748932,-0.003629526123404503,-0.002960268408060074,-0.002291010692715645,-0.0016217511147260666,-0.0009524933993816376,-0.00028323568403720856,0.00038602203130722046,0.0010552816092967987,0.0017245393246412277,0.0023937970399856567,0.0030630547553300858,0.0037323124706745148,0.004401572048664093,0.005070829764008522,0.005740087479352951,0.00640934519469738,0.007078604772686958,0.007747862488031387,0.008417120203375816,0.009086377918720245,0.009755636565387249,0.010424894280731678,0.011094152927398682,0.01176341064274311,0.012432669289410114,0.013101927004754543,0.013771184720098972,0.014440443366765976,0.015109701082110405,0.015778958797454834,0.016448218375444412,0.01711747609078884,0.01778673380613327,0.0184559915214777,0.01912524923682213,0.019794508814811707,0.020463766530156136,0.021133024245500565,0.021802281960844994,0.022471541538834572,0.023140799254179,0.02381005696952343],"_type":"histogram","values":[1,1,0,0,1,0,2,5,2,3,7,12,12,10,34,27,32,73,103,114,191,253,338,531,818,1055,1787,2581,3283,2343,1485,999,735,483,305,219,152,119,82,64,46,26,25,14,17,9,10,6,2,2,3,2,2,0,1,1,0,0,1,1,1,0,0,1]},"Stage 25 overs F1-Score":0.864516129032258,"parameters/player_encoder.batch_norm2.bias":{"bins":[-0.40940040349960327,-0.4040040075778961,-0.39860764145851135,-0.3932112455368042,-0.38781484961509705,-0.3824184834957123,-0.3770220875740051,-0.371625691652298,-0.3662293255329132,-0.36083292961120605,-0.3554365634918213,-0.35004016757011414,-0.344643771648407,-0.3392474055290222,-0.33385100960731506,-0.3284546136856079,-0.32305824756622314,-0.317661851644516,-0.31226545572280884,-0.3068690896034241,-0.3014726936817169,-0.29607629776000977,-0.290679931640625,-0.28528353571891785,-0.2798871397972107,-0.2744907736778259,-0.2690943777561188,-0.2636979818344116,-0.25830161571502686,-0.2529052197933197,-0.24750883877277374,-0.2421124428510666,-0.23671606183052063,-0.23131966590881348,-0.22592326998710632,-0.22052690386772156,-0.2151305079460144,-0.20973411202430725,-0.20433774590492249,-0.19894134998321533,-0.19354498386383057,-0.1881485879421234,-0.18275219202041626,-0.1773558109998703,-0.17195942997932434,-0.1665630340576172,-0.16116665303707123,-0.15577027201652527,-0.15037387609481812,-0.14497749507427216,-0.1395811140537262,-0.13418471813201904,-0.12878835201263428,-0.12339195609092712,-0.11799556761980057,-0.11259917914867401,-0.10720279812812805,-0.10180641710758209,-0.09641002863645554,-0.09101364016532898,-0.08561725914478302,-0.08022087067365646,-0.07482448220252991,-0.06942810118198395,-0.06403171271085739],"_type":"histogram","values":[2,1,0,0,0,0,0,0,0,0,0,0,0,0,1,1,2,0,0,1,1,0,2,0,0,0,1,0,2,2,1,0,1,1,2,2,3,3,2,1,2,1,1,2,2,2,1,2,2,6,3,1,2,1,0,0,0,0,0,1,1,0,1,1]},"Stage 20 overs Precision":0.9433962264150944,"gradients/ball_encoder.rnn.weight_hh_l0":{"values":[3,0,2,1,0,2,1,1,1,0,0,1,0,6,5,3,7,8,10,10,17,18,19,62,91,108,192,287,481,1119,2627,9703,215510,24019,4392,1682,674,363,210,164,99,81,41,19,17,13,10,11,11,8,3,5,2,3,2,3,1,1,4,4,1,2,2,2],"bins":[-0.01657240465283394,-0.01606566458940506,-0.015558924525976181,-0.015052184462547302,-0.014545444399118423,-0.014038704335689545,-0.013531964272260666,-0.013025224208831787,-0.012518484145402908,-0.01201174408197403,-0.01150500401854515,-0.010998263955116272,-0.010491524823009968,-0.009984784759581089,-0.00947804469615221,-0.008971304632723331,-0.008464564569294453,-0.007957824505865574,-0.007451084442436695,-0.006944344379007816,-0.0064376043155789375,-0.005930864252150059,-0.00542412418872118,-0.004917384125292301,-0.004410644993185997,-0.0039039049297571182,-0.0033971648663282394,-0.0028904248028993607,-0.002383684739470482,-0.001876944676041603,-0.0013702046126127243,-0.0008634645491838455,-0.00035672448575496674,0.00015001557767391205,0.0006567556411027908,0.0011634957045316696,0.0016702357679605484,0.002176975831389427,0.002683715894818306,0.0031904559582471848,0.0036971960216760635,0.004203935153782368,0.0047106752172112465,0.005217415280640125,0.005724155344069004,0.006230895407497883,0.006737635470926762,0.00724437553435564,0.007751115597784519,0.008257855661213398,0.008764595724642277,0.009271335788071156,0.009778075851500034,0.010284814983606339,0.010791555047035217,0.011298295110464096,0.011805035173892975,0.012311775237321854,0.012818515300750732,0.013325255364179611,0.01383199542760849,0.014338735491037369,0.014845475554466248,0.015352215617895126,0.015858955681324005],"_type":"histogram"},"gradients/decoder.fc.bias":{"values":[1],"bins":[0.05332784354686737,0.05332784354686737],"_type":"histogram"},"_timestamp":1.7322558363421783e+09,"Stage 35 overs Recall":0.775,"gradients/player_encoder.conv1.weight":{"_type":"histogram","values":[1,0,0,0,0,1,0,0,0,0,0,0,0,0,2,0,1,1,0,0,1,3,2,3,2,4,4,8,10,5,10,13,37,48,37,35,17,15,5,3,2,5,3,2,3,1,1,0,0,0,0,1,0,0,0,0,0,0,0,0,0,0,1,1],"bins":[-0.09594656527042389,-0.09309843182563782,-0.09025030583143234,-0.08740217238664627,-0.0845540463924408,-0.08170591294765472,-0.07885777950286865,-0.07600965350866318,-0.0731615275144577,-0.07031339406967163,-0.06746526062488556,-0.06461713463068008,-0.06176900118589401,-0.05892087146639824,-0.056072741746902466,-0.05322461202740669,-0.05037648230791092,-0.047528352588415146,-0.04468022286891937,-0.0418320931494236,-0.038983963429927826,-0.036135829985141754,-0.03328770399093628,-0.030439570546150208,-0.027591437101364136,-0.02474331110715866,-0.02189517766237259,-0.019047051668167114,-0.016198918223381042,-0.013350792229175568,-0.010502658784389496,-0.007654532790184021,-0.004806406795978546,-0.0019582733511924744,0.0008898526430130005,0.0037379860877990723,0.006586112082004547,0.009434245526790619,0.012282371520996094,0.015130504965782166,0.01797863095998764,0.020826764404773712,0.023674897849559784,0.02652302384376526,0.02937115728855133,0.032219287008047104,0.03506741672754288,0.03791554644703865,0.040763676166534424,0.0436118058860302,0.04645993560552597,0.049308065325021744,0.05215619504451752,0.05500432848930359,0.05785245820879936,0.060700587928295135,0.06354871392250061,0.06639684736728668,0.06924498081207275,0.07209310680627823,0.0749412402510643,0.07778936624526978,0.08063749969005585,0.08348562568426132,0.0863337591290474]},"Stage 45 overs Recall":0.7866666666666666,"gradients/ball_encoder.rnn.weight_hh_l1":{"_type":"histogram","values":[3,1,1,0,1,1,3,3,0,4,3,1,3,6,11,13,14,11,26,31,39,50,79,99,159,201,434,916,2956,71079,180190,3457,1054,436,264,148,104,66,70,37,24,25,25,22,13,18,10,13,3,1,3,3,1,2,1,2,0,0,2,0,0,1,0,1],"bins":[-0.012199205346405506,-0.011792916804552078,-0.01138662826269865,-0.010980338789522648,-0.01057405024766922,-0.010167761705815792,-0.009761473163962364,-0.009355183690786362,-0.008948895148932934,-0.008542606607079506,-0.008136318065226078,-0.007730029057711363,-0.007323740515857935,-0.00691745150834322,-0.006511162966489792,-0.006104873958975077,-0.005698585417121649,-0.005292296875268221,-0.004886007867753506,-0.004479719325900078,-0.00407343078404665,-0.0036671413108706474,-0.0032608527690172195,-0.0028545642271637917,-0.0024482756853103638,-0.002041987143456936,-0.0016356976702809334,-0.0012294091284275055,-0.0008231205865740776,-0.0004168320447206497,-1.0542571544647217e-05,0.00039574597030878067,0.0008020345121622086,0.0012083230540156364,0.0016146115958690643,0.002020901069045067,0.0024271896108984947,0.0028334781527519226,0.0032397666946053505,0.003646056167781353,0.004052344709634781,0.004458633251488209,0.004864921793341637,0.0052712103351950645,0.005677499808371067,0.006083788350224495,0.006490076892077923,0.006896365899592638,0.007302654441446066,0.007708942983299494,0.008115231990814209,0.008521520532667637,0.008927809074521065,0.009334098547697067,0.009740387089550495,0.010146675631403923,0.010552964173257351,0.010959252715110779,0.011365542188286781,0.01177183073014021,0.012178119271993637,0.012584407813847065,0.012990697287023067,0.013396985828876495,0.013803274370729923]},"gradients/player_encoder.batch_norm2.bias":{"_type":"histogram","values":[2,1,1,0,0,0,1,0,3,1,1,1,0,0,0,2,2,2,1,0,1,3,2,1,2,3,4,0,4,1,1,4,2,2,0,0,1,1,1,0,3,1,2,0,2,1,0,0,0,1,0,0,0,0,1,0,0,0,0,0,1,0,0,1],"bins":[-0.032235607504844666,-0.03109171614050865,-0.029947824776172638,-0.028803933411836624,-0.02766004204750061,-0.026516150683164597,-0.025372261181473732,-0.024228369817137718,-0.023084478452801704,-0.02194058708846569,-0.020796695724129677,-0.019652806222438812,-0.0185089148581028,-0.017365023493766785,-0.01622113212943077,-0.015077240765094757,-0.013933349400758743,-0.01278945803642273,-0.011645566672086716,-0.010501675307750702,-0.009357783943414688,-0.008213894441723824,-0.00707000307738781,-0.005926111713051796,-0.004782220348715782,-0.0036383289843797684,-0.0024944376200437546,-0.0013505462557077408,-0.00020665675401687622,0.0009372346103191376,0.0020811259746551514,0.003225017338991165,0.004368912428617477,0.005512803792953491,0.006656695157289505,0.007800586521625519,0.008944477885961533,0.010088367387652397,0.011232258751988411,0.012376150116324425,0.013520041480660439,0.014663932844996452,0.015807824209332466,0.01695171557366848,0.018095605075359344,0.01923949643969536,0.020383387804031372,0.021527279168367386,0.0226711705327034,0.023815061897039413,0.024958953261375427,0.02610284462571144,0.027246735990047455,0.02839062735438347,0.029534516856074333,0.030678408220410347,0.03182230144739151,0.032966189086437225,0.03411008045077324,0.03525397181510925,0.03639786317944527,0.03754175454378128,0.038685645908117294,0.03982953727245331,0.04097342863678932]},"training_history":{"height":400,"_type":"image-file","sha256":"1ff13c5bb6479958a2aa1808c57bcecc110b82de31a5bd106c6b322c8b34077a","size":73944,"path":"media/images/training_history_50_1ff13c5bb6479958a2aa.png","format":"png","width":1200},"Overall Accuracy":0.8365384615384616,"parameters/player_encoder.conv2.weight":{"_type":"histogram","values":[1,2,3,1,2,0,7,9,22,24,23,42,60,72,99,139,156,208,284,299,378,490,531,580,729,783,874,915,935,970,949,942,967,903,873,787,682,653,535,479,410,321,289,228,177,148,128,100,53,52,33,24,17,13,8,6,5,3,3,4,0,1,0,1],"bins":[-0.3367668390274048,-0.32616278529167175,-0.3155587315559387,-0.3049546778202057,-0.29435062408447266,-0.2837465703487396,-0.2731425166130066,-0.26253849267959595,-0.2519344091415405,-0.2413303703069687,-0.23072631657123566,-0.22012227773666382,-0.2095182240009308,-0.19891417026519775,-0.18831011652946472,-0.1777060627937317,-0.16710200905799866,-0.15649795532226562,-0.1458939015865326,-0.13528984785079956,-0.12468579411506653,-0.11408175528049469,-0.10347770154476166,-0.09287364780902863,-0.08226960897445679,-0.07166555523872375,-0.06106150150299072,-0.05045744776725769,-0.03985339403152466,-0.029249340295791626,-0.018645286560058594,-0.008041232824325562,0.0025628507137298584,0.01316690444946289,0.023770958185195923,0.034375011920928955,0.04497906565666199,0.05558311939239502,0.06618717312812805,0.07679122686386108,0.08739528059959412,0.09799931943416595,0.10860337316989899,0.11920742690563202,0.12981146574020386,0.1404155194759369,0.15101957321166992,0.16162362694740295,0.172227680683136,0.18283173441886902,0.19343578815460205,0.20403984189033508,0.21464389562606812,0.22524794936180115,0.23585198819637299,0.24645604193210602,0.25706011056900024,0.2676641345024109,0.2782682180404663,0.28887224197387695,0.29947629570961,0.310080349445343,0.32068440318107605,0.3312884569168091,0.3418925106525421]},"gradients/player_encoder.batch_norm1.bias":{"bins":[-0.01970512419939041,-0.01913141831755638,-0.01855771243572235,-0.01798400469124317,-0.01741029880940914,-0.01683659292757511,-0.016262885183095932,-0.015689179301261902,-0.015115473419427872,-0.014541767537593842,-0.013968060724437237,-0.013394353911280632,-0.012820648029446602,-0.012246942147612572,-0.011673235334455967,-0.011099528521299362,-0.010525822639465332,-0.009952116757631302,-0.009378409944474697,-0.008804703131318092,-0.008230997249484062,-0.007657291367650032,-0.007083584554493427,-0.0065098777413368225,-0.005936171859502792,-0.005362465977668762,-0.0047887591645121574,-0.004215052351355553,-0.0036413464695215225,-0.0030676405876874924,-0.002493932843208313,-0.0019202269613742828,-0.0013465192168951035,-0.0007728133350610733,-0.00019910745322704315,0.00037460029125213623,0.0009483061730861664,0.0015220120549201965,0.0020957188680768013,0.002669425681233406,0.0032431315630674362,0.0038168374449014664,0.004390544258058071,0.004964251071214676,0.005537956953048706,0.006111662834882736,0.006685369648039341,0.007259076461195946,0.007832782343029976,0.008406488224864006,0.00898019503802061,0.009553901851177216,0.010127607733011246,0.010701313614845276,0.01127502042800188,0.011848727241158485,0.012422433122992516,0.012996139004826546,0.01356984581798315,0.014143552631139755,0.014717258512973785,0.015290964394807816,0.015864670276641846,0.016438378021121025,0.017012083902955055],"_type":"histogram","values":[1,0,0,0,0,0,0,0,0,0,0,0,0,0,0,0,1,0,1,2,1,1,0,0,0,1,0,1,1,0,0,0,3,0,2,0,2,2,0,3,1,2,0,1,1,0,0,1,0,0,1,2,0,0,0,0,0,0,0,0,0,0,0,1]},"gradients/ball_encoder.rnn.bias_hh_l1":{"bins":[-0.01864789053797722,-0.018153579905629158,-0.017659269273281097,-0.017164960503578186,-0.016670649871230125,-0.016176339238882065,-0.015682030469179153,-0.015187719836831093,-0.014693409204483032,-0.014199098572134972,-0.013704788871109486,-0.013210479170084,-0.012716168537735939,-0.012221857905387878,-0.011727548204362392,-0.011233238503336906,-0.010738927870988846,-0.010244617238640785,-0.0097503075376153,-0.009255997836589813,-0.008761687204241753,-0.008267376571893692,-0.007773066870868206,-0.00727875716984272,-0.006784446537494659,-0.006290135905146599,-0.005795826204121113,-0.005301516503095627,-0.004807205870747566,-0.004312895238399506,-0.0038185855373740196,-0.0033242758363485336,-0.002829965204000473,-0.0023356545716524124,-0.0018413448706269264,-0.0013470351696014404,-0.0008527245372533798,-0.0003584139049053192,0.00013589579612016678,0.0006302054971456528,0.0011245161294937134,0.001618826761841774,0.00211313646286726,0.002607446163892746,0.0031017567962408066,0.003596067428588867,0.004090377129614353,0.004584686830639839,0.0050789974629879,0.005573307629674673,0.006067617796361446,0.00656192796304822,0.007056238129734993,0.007550548296421766,0.00804485846310854,0.008539168164134026,0.009033478796482086,0.009527789428830147,0.010022099129855633,0.010516408830881119,0.01101071946322918,0.01150503009557724,0.011999339796602726,0.012493649497628212,0.012987960129976273],"_type":"histogram","values":[1,0,0,0,0,0,0,0,0,1,0,0,0,0,0,0,0,0,1,0,0,0,0,2,0,2,0,2,1,3,1,3,6,7,14,25,76,616,163,41,17,9,3,2,4,4,4,1,3,2,0,1,2,2,2,1,0,0,0,0,0,1,0,1]},"parameters/team_encoder.fc1.weight":{"_type":"histogram","values":[1,0,0,1,2,0,2,0,3,4,1,7,8,11,6,13,21,24,41,34,39,56,67,76,117,121,125,155,191,252,571,246,234,148,138,122,81,70,60,50,41,37,38,21,21,13,14,8,11,2,4,2,3,2,1,2,2,1,1,1,0,1,3,1],"bins":[-0.5769115686416626,-0.5579988360404968,-0.539086103439331,-0.5201733112335205,-0.5012605786323547,-0.48234784603118896,-0.4634351134300232,-0.4445223808288574,-0.42560961842536926,-0.4066968560218811,-0.38778412342071533,-0.36887139081954956,-0.3499586582183838,-0.33104589581489563,-0.31213316321372986,-0.2932204008102417,-0.2743076682090759,-0.25539493560791016,-0.236482173204422,-0.21756944060325623,-0.19865667819976807,-0.1797439455986023,-0.16083121299743652,-0.14191845059394836,-0.12300571799278259,-0.10409298539161682,-0.08518022298812866,-0.06626749038696289,-0.04735475778579712,-0.028442025184631348,-0.0095292329788208,0.00938349962234497,0.028296172618865967,0.04720890522003174,0.06612163782119751,0.08503443002700806,0.10394716262817383,0.1228598952293396,0.14177262783050537,0.16068539023399353,0.1795981228351593,0.19851085543632507,0.21742361783981323,0.236336350440979,0.2552490830421448,0.27416184544563293,0.2930745780467987,0.31198734045028687,0.33090007305145264,0.3498128056526184,0.36872556805610657,0.38763830065727234,0.4065510630607605,0.42546379566192627,0.44437652826309204,0.4632892608642578,0.48220202326774597,0.5011147856712341,0.5200275182723999,0.5389402508735657,0.5578529834747314,0.5767657160758972,0.5956785082817078,0.6145912408828735,0.6335039734840393]},"gradients/ball_encoder.rnn.bias_ih_l1":{"values":[1,0,0,0,0,0,0,0,0,1,0,0,0,0,0,0,0,0,1,0,0,0,0,2,0,2,0,2,1,3,1,3,6,7,14,25,76,616,163,41,17,9,3,2,4,4,4,1,3,2,0,1,2,2,2,1,0,0,0,0,0,1,0,1],"bins":[-0.01864789053797722,-0.018153579905629158,-0.017659269273281097,-0.017164960503578186,-0.016670649871230125,-0.016176339238882065,-0.015682030469179153,-0.015187719836831093,-0.014693409204483032,-0.014199098572134972,-0.013704788871109486,-0.013210479170084,-0.012716168537735939,-0.012221857905387878,-0.011727548204362392,-0.011233238503336906,-0.010738927870988846,-0.010244617238640785,-0.0097503075376153,-0.009255997836589813,-0.008761687204241753,-0.008267376571893692,-0.007773066870868206,-0.00727875716984272,-0.006784446537494659,-0.006290135905146599,-0.005795826204121113,-0.005301516503095627,-0.004807205870747566,-0.004312895238399506,-0.0038185855373740196,-0.0033242758363485336,-0.002829965204000473,-0.0023356545716524124,-0.0018413448706269264,-0.0013470351696014404,-0.0008527245372533798,-0.0003584139049053192,0.00013589579612016678,0.0006302054971456528,0.0011245161294937134,0.001618826761841774,0.00211313646286726,0.002607446163892746,0.0031017567962408066,0.003596067428588867,0.004090377129614353,0.004584686830639839,0.0050789974629879,0.005573307629674673,0.006067617796361446,0.00656192796304822,0.007056238129734993,0.007550548296421766,0.00804485846310854,0.008539168164134026,0.009033478796482086,0.009527789428830147,0.010022099129855633,0.010516408830881119,0.01101071946322918,0.01150503009557724,0.011999339796602726,0.012493649497628212,0.012987960129976273],"_type":"histogram"},"Stage 20 overs Accuracy":0.8416666666666667,"Stage 45 overs F1-Score":0.855072463768116,"val_loss":0.3513286675398166,"Stage 40 overs Recall":0.8043478260869565,"gradients/team_encoder.fc1.weight":{"values":[1,2,0,1,0,2,2,2,1,2,0,4,2,0,8,11,9,10,9,15,19,42,50,129,2500,283,84,42,23,19,12,9,5,7,4,5,2,3,1,0,0,1,0,0,1,0,0,0,0,0,0,1,0,0,1,0,1,1,0,0,0,1,0,1],"bins":[-0.08081836998462677,-0.07755026966333389,-0.07428217679262161,-0.07101407647132874,-0.06774598360061646,-0.06447788327932358,-0.0612097904086113,-0.05794169008731842,-0.05467359721660614,-0.05140549689531326,-0.048137400299310684,-0.044869303703308105,-0.04160120710730553,-0.03833311051130295,-0.03506501391530037,-0.03179691731929779,-0.028528820723295212,-0.025260724127292633,-0.021992627531290054,-0.018724530935287476,-0.015456430613994598,-0.012188337743282318,-0.008920237421989441,-0.005652144551277161,-0.0023840442299842834,0.0008840486407279968,0.004152148962020874,0.007420241832733154,0.010688342154026031,0.013956435024738312,0.01722453534603119,0.02049262821674347,0.023760728538036346,0.027028828859329224,0.030296921730041504,0.03356502205133438,0.03683311492204666,0.04010121524333954,0.04336930811405182,0.046637408435344696,0.049905501306056976,0.053173601627349854,0.056441694498062134,0.05970979481935501,0.06297788769006729,0.06624598801136017,0.06951408088207245,0.07278218120336533,0.0760502815246582,0.07931837439537048,0.08258646726608276,0.08585456758737564,0.08912266790866852,0.0923907607793808,0.09565885365009308,0.09892695397138596,0.10219505429267883,0.10546314716339111,0.10873124748468399,0.11199934035539627,0.11526744067668915,0.11853553354740143,0.1218036338686943,0.12507173418998718,0.12833982706069946],"_type":"histogram"},"parameters/decoder.fc.weight":{"values":[1,0,0,0,1,0,1,0,0,2,1,6,5,5,3,3,8,8,18,13,13,17,23,26,36,35,35,36,41,46,45,33,44,33,31,30,23,26,15,10,8,8,7,5,8,7,13,8,4,4,7,2,4,0,5,2,0,2,0,0,0,0,0,1],"bins":[-0.22448159754276276,-0.2169848084449768,-0.20948801934719086,-0.2019912302494049,-0.19449444115161896,-0.186997652053833,-0.17950087785720825,-0.1720040738582611,-0.16450729966163635,-0.1570104956626892,-0.14951372146606445,-0.1420169174671173,-0.13452014327049255,-0.1270233541727066,-0.11952656507492065,-0.1120297759771347,-0.10453298687934875,-0.0970361977815628,-0.08953940868377686,-0.0820426195859909,-0.07454583048820496,-0.067049041390419,-0.05955225229263306,-0.05205546319484711,-0.04455868899822235,-0.0370618999004364,-0.02956511080265045,-0.022068321704864502,-0.014571532607078552,-0.0070747435092926025,0.00042204558849334717,0.007918834686279297,0.015415608882904053,0.022912397980690002,0.030409187078475952,0.0379059761762619,0.04540276527404785,0.0528995543718338,0.06039634346961975,0.0678931325674057,0.07538992166519165,0.0828866958618164,0.09038348495960236,0.0978802740573883,0.10537706315517426,0.1128738522529602,0.12037064135074615,0.1278674304485321,0.13536421954631805,0.142861008644104,0.15035779774188995,0.1578545868396759,0.16535137593746185,0.1728481650352478,0.18034493923187256,0.1878417432308197,0.19533851742744446,0.2028353214263916,0.21033209562301636,0.2178288847208023,0.22532567381858826,0.2328224629163742,0.24031925201416016,0.2478160411119461,0.25531283020973206],"_type":"histogram"},"gradients/ball_encoder.rnn.weight_ih_l1":{"values":[1,0,2,0,1,0,0,0,2,0,2,1,3,5,6,7,5,16,21,37,51,76,90,115,186,277,476,984,2408,18764,232314,3587,1195,552,301,205,130,89,82,51,33,17,9,9,8,4,7,4,1,3,1,1,1,2,1,0,0,0,0,0,0,0,0,1],"bins":[-0.02133859694004059,-0.0206307265907526,-0.019922856241464615,-0.019214985892176628,-0.01850711554288864,-0.017799243330955505,-0.01709137298166752,-0.016383502632379532,-0.015675632283091545,-0.014967761933803558,-0.014259891584515572,-0.01355202030390501,-0.012844149954617023,-0.012136279605329037,-0.011428408324718475,-0.010720537975430489,-0.010012667626142502,-0.009304797276854515,-0.008596926927566528,-0.007889055646955967,-0.00718118529766798,-0.0064733149483799934,-0.005765443667769432,-0.005057573318481445,-0.0043497029691934586,-0.003641832619905472,-0.002933962270617485,-0.0022260919213294983,-0.0015182197093963623,-0.0008103493601083755,-0.0001024790108203888,0.000605391338467598,0.0013132616877555847,0.0020211320370435715,0.0027290023863315582,0.003436872735619545,0.004144743084907532,0.004852615296840668,0.0055604856461286545,0.006268355995416641,0.006976226344704628,0.007684096693992615,0.008391967043280602,0.009099838323891163,0.00980770867317915,0.010515579022467136,0.011223450303077698,0.011931320652365685,0.012639191001653671,0.013347061350941658,0.014054931700229645,0.014762802980840206,0.015470673330128193,0.016178544610738754,0.01688641496002674,0.017594285309314728,0.018302155658602715,0.0190100260078907,0.019717896357178688,0.020425766706466675,0.02113363891839981,0.021841509267687798,0.022549379616975784,0.02325724996626377,0.023965120315551758],"_type":"histogram"},"Stage 35 overs Accuracy":0.8333333333333334,"gradients/team_encoder.batch_norm1.weight":{"bins":[-0.01493767462670803,-0.01435139961540699,-0.013765123672783375,-0.01317884773015976,-0.012592572718858719,-0.012006297707557678,-0.011420021764934063,-0.010833745822310448,-0.010247470811009407,-0.009661195799708366,-0.009074919857084751,-0.008488643914461136,-0.007902368903160095,-0.007316093426197767,-0.006729817949235439,-0.006143542006611824,-0.005557266995310783,-0.004970991984009743,-0.0043847160413861275,-0.003798440098762512,-0.0032121650874614716,-0.002625890076160431,-0.0020396141335368156,-0.0014533381909132004,-0.0008670631796121597,-0.0002807881683111191,0.0003054877743124962,0.0008917637169361115,0.001478038728237152,0.0020643137395381927,0.0026505906134843826,0.0032368656247854233,0.0038231387734413147,0.004409413784742355,0.004995688796043396,0.005581965669989586,0.0061682406812906265,0.006754515692591667,0.0073407916352152824,0.007927067577838898,0.008513342589139938,0.009099617600440979,0.009685893543064594,0.01027216948568821,0.01085844449698925,0.01144471950829029,0.012030995450913906,0.012617271393537521,0.013203546404838562,0.013789821416139603,0.014376097358763218,0.014962373301386833,0.015548648312687874,0.016134923323988914,0.016721200197935104,0.017307475209236145,0.017893750220537186,0.018480025231838226,0.019066300243139267,0.019652577117085457,0.020238852128386497,0.020825127139687538,0.021411404013633728,0.02199767902493477,0.02258395403623581],"_type":"histogram","values":[1,1,1,0,0,0,0,0,1,0,2,1,2,1,0,1,3,2,1,5,7,8,8,16,13,91,24,12,7,12,4,2,8,1,0,2,3,1,1,2,2,1,2,0,3,0,0,1,0,0,0,0,1,0,0,1,0,0,0,0,0,0,0,1]},"Stage 30 overs Accuracy":0.8388888888888889,"Stage 40 overs F1-Score":0.8638132295719845,"parameters/ball_encoder.rnn.weight_hh_l0":{"_type":"histogram","values":[1,0,0,0,0,0,0,0,0,0,0,1,0,0,0,0,3,0,3,3,3,4,8,9,21,35,32,60,116,175,293,443,730,1190,1940,3614,7340,18300,62525,114077,29472,10854,4823,2451,1429,815,524,317,216,116,60,40,35,18,9,15,10,4,6,3,0,0,0,1],"bins":[-0.6806719303131104,-0.6633113622665405,-0.6459507346153259,-0.6285901665687561,-0.6112295389175415,-0.5938689708709717,-0.5765084028244019,-0.5591477751731873,-0.5417872071266174,-0.5244265794754028,-0.507066011428833,-0.4897054433822632,-0.47234484553337097,-0.45498424768447876,-0.43762367963790894,-0.4202630817890167,-0.4029024839401245,-0.3855418860912323,-0.3681812882423401,-0.35082072019577026,-0.33346012234687805,-0.31609952449798584,-0.298738956451416,-0.2813783586025238,-0.2640177607536316,-0.24665716290473938,-0.22929656505584717,-0.21193599700927734,-0.19457539916038513,-0.17721480131149292,-0.1598542332649231,-0.1424936056137085,-0.1251329779624939,-0.10777240991592407,-0.09041178226470947,-0.07305121421813965,-0.055690616369247437,-0.038330018520355225,-0.0209694504737854,-0.0036088526248931885,0.013751745223999023,0.031112343072891235,0.04847294092178345,0.06583350896835327,0.08319410681724548,0.1005547046661377,0.11791527271270752,0.13527587056159973,0.15263646841049194,0.16999706625938416,0.18735764920711517,0.2047182321548462,0.2220788300037384,0.23943942785263062,0.25679999589920044,0.27416059374809265,0.29152119159698486,0.3088817894458771,0.3262423872947693,0.3436029553413391,0.3609635531902313,0.37832415103912354,0.39568471908569336,0.41304531693458557,0.4304059147834778]},"gradients/player_encoder.batch_norm2.weight":{"_type":"histogram","values":[1,1,0,1,0,0,0,1,1,0,0,1,2,1,2,1,0,0,2,2,3,4,3,0,4,0,1,0,3,3,0,0,1,1,1,1,2,3,3,1,1,1,1,4,1,0,0,0,1,0,0,0,2,0,1,0,0,0,0,0,1,0,0,1],"bins":[-0.0235290490090847,-0.022763052955269814,-0.021997058764100075,-0.021231062710285187,-0.020465068519115448,-0.01969907246530056,-0.018933076411485672,-0.018167082220315933,-0.017401088029146194,-0.016635091975331306,-0.01586909592151642,-0.01510310173034668,-0.014337105676531792,-0.013571110554039478,-0.012805115431547165,-0.012039120309054852,-0.011273125186562538,-0.010507130064070225,-0.009741134941577911,-0.008975139819085598,-0.008209144696593285,-0.007443148642778397,-0.006677154451608658,-0.00591115839779377,-0.005145162343978882,-0.004379168152809143,-0.003613172098994255,-0.0028471779078245163,-0.0020811818540096283,-0.0013151876628398895,-0.0005491916090250015,0.00021680258214473724,0.000982796773314476,0.001748792827129364,0.002514787018299103,0.003280783072113991,0.0040467772632837296,0.0048127733170986176,0.005578767508268356,0.006344763562083244,0.007110757753252983,0.007876753807067871,0.008642749860882759,0.009408744052052498,0.010174740105867386,0.0109407352283597,0.011706730350852013,0.012472725473344326,0.01323872059583664,0.014004715718328953,0.014770710840821266,0.01553670596331358,0.016302701085805893,0.01706869713962078,0.01783469319343567,0.018600687384605408,0.019366681575775146,0.020132677629590034,0.020898673683404922,0.02166466787457466,0.02243066392838955,0.023196658119559288,0.023962654173374176,0.024728648364543915,0.025494644418358803]},"parameters/ball_encoder.rnn.bias_hh_l1":{"values":[1,0,0,1,0,0,0,0,0,0,1,1,0,4,3,7,4,7,14,6,17,22,19,32,19,33,40,42,45,58,54,46,73,51,50,47,40,53,34,23,33,26,20,11,12,9,11,7,6,8,7,9,4,2,2,1,2,2,0,1,1,1,1,1],"bins":[-0.24973490834236145,-0.24306631088256836,-0.23639771342277527,-0.22972911596298218,-0.2230605185031891,-0.216391921043396,-0.2097233235836029,-0.20305472612380981,-0.19638612866401672,-0.18971753120422363,-0.18304893374443054,-0.17638033628463745,-0.16971173882484436,-0.16304314136505127,-0.15637454390525818,-0.1497059464454651,-0.143037348985672,-0.1363687515258789,-0.12970015406608582,-0.12303155660629272,-0.11636295914649963,-0.10969436168670654,-0.10302576422691345,-0.09635716676712036,-0.08968856930732727,-0.08301997184753418,-0.07635137438774109,-0.069682776927948,-0.06301417946815491,-0.056345582008361816,-0.049676984548568726,-0.043008387088775635,-0.03633980453014374,-0.029671207070350647,-0.023002609610557556,-0.016334012150764465,-0.009665414690971375,-0.0029968172311782837,0.003671780228614807,0.010340377688407898,0.01700897514820099,0.02367757260799408,0.03034617006778717,0.03701476752758026,0.04368336498737335,0.05035196244716644,0.057020559906959534,0.06368915736675262,0.07035775482654572,0.0770263522863388,0.0836949497461319,0.09036354720592499,0.09703214466571808,0.10370074212551117,0.11036933958530426,0.11703793704509735,0.12370653450489044,0.13037513196468353,0.13704372942447662,0.14371232688426971,0.1503809243440628,0.1570495218038559,0.163718119263649,0.17038671672344208,0.17705531418323517],"_type":"histogram"},"Stage 45 overs Accuracy":0.8518518518518519,"parameters/player_encoder.conv2.bias":{"bins":[-3.0776871426496655e-05,-2.9875605832785368e-05,-2.897434023907408e-05,-2.807307282637339e-05,-2.7171807232662104e-05,-2.6270541638950817e-05,-2.5369274226250127e-05,-2.446800863253884e-05,-2.3566743038827553e-05,-2.2665477445116267e-05,-2.176421185140498e-05,-2.086294443870429e-05,-1.9961678844993003e-05,-1.9060413251281716e-05,-1.8159145838581026e-05,-1.725788024486974e-05,-1.6356614651158452e-05,-1.5455349057447165e-05,-1.4554083463735878e-05,-1.3652816051035188e-05,-1.2751550457323901e-05,-1.1850284863612615e-05,-1.0949017450911924e-05,-1.0047751857200637e-05,-9.14648626348935e-06,-8.245220669778064e-06,-7.343955076066777e-06,-6.442687663366087e-06,-5.5414220696548e-06,-4.640156475943513e-06,-3.738889063242823e-06,-2.837623469531536e-06,-1.936359694809653e-06,-1.035094101098366e-06,-1.338285073870793e-07,7.67438905313611e-07,1.6687044990248978e-06,2.5699700927361846e-06,3.471237505436875e-06,4.372503099148162e-06,5.2737686928594485e-06,6.175034286570735e-06,7.076299880282022e-06,7.977567292982712e-06,8.878832886694e-06,9.780098480405286e-06,1.0681365893105976e-05,1.1582631486817263e-05,1.248389708052855e-05,1.3385162674239837e-05,1.4286429177445825e-05,1.5187695680651814e-05,1.60889612743631e-05,1.6990226868074387e-05,1.7891492461785674e-05,1.8792759874486364e-05,1.969402546819765e-05,2.0595291061908938e-05,2.149655847460963e-05,2.2397824068320915e-05,2.3299089662032202e-05,2.420035525574349e-05,2.5101620849454775e-05,2.6002888262155466e-05,2.6904153855866753e-05],"_type":"histogram","values":[1,0,0,1,0,0,0,0,0,1,0,0,0,1,1,1,0,0,2,1,1,1,1,3,2,2,1,0,5,1,0,0,5,2,5,2,0,0,1,4,1,0,3,0,0,2,0,1,2,3,1,2,1,2,0,0,0,0,0,0,0,0,0,1]},"_wandb":{"runtime":710},"parameters/ball_encoder.rnn.weight_hh_l1":{"values":[1,0,1,0,2,2,5,4,4,3,7,12,21,19,34,47,62,73,125,174,217,347,485,706,1051,1647,2387,3689,6520,12059,28251,98537,57972,20470,10346,5830,3598,2277,1562,1045,725,487,365,262,201,154,93,84,50,34,22,25,17,11,7,4,2,3,1,1,1,0,1,2],"bins":[-0.3945913314819336,-0.38218772411346436,-0.3697841465473175,-0.35738056898117065,-0.3449769616127014,-0.3325733542442322,-0.3201697766780853,-0.3077661991119385,-0.29536259174346924,-0.282958984375,-0.27055540680885315,-0.2581518292427063,-0.24574822187423706,-0.23334462940692902,-0.22094103693962097,-0.20853744447231293,-0.19613385200500488,-0.18373025953769684,-0.1713266670703888,-0.15892307460308075,-0.1465194821357727,-0.13411587476730347,-0.12171229720115662,-0.10930871963500977,-0.09690511226654053,-0.08450150489807129,-0.07209792733192444,-0.05969434976577759,-0.04729074239730835,-0.03488713502883911,-0.02248355746269226,-0.01007997989654541,0.002323657274246216,0.014727264642715454,0.027130842208862305,0.039534419775009155,0.051938027143478394,0.06434163451194763,0.07674521207809448,0.08914878964424133,0.10155239701271057,0.11395600438117981,0.12635958194732666,0.1387631595134735,0.15116676688194275,0.1635703593492508,0.17597395181655884,0.18837754428386688,0.20078113675117493,0.21318472921848297,0.22558832168579102,0.23799191415309906,0.2503955066204071,0.26279908418655396,0.2752026915550232,0.28760629892349243,0.3000098764896393,0.31241345405578613,0.32481706142425537,0.3372206687927246,0.34962424635887146,0.3620278239250183,0.37443143129348755,0.3868350386619568,0.39923861622810364],"_type":"histogram"},"parameters/team_encoder.batch_norm1.weight":{"bins":[0.19760975241661072,0.2088470757007599,0.22008439898490906,0.23132172226905823,0.2425590455532074,0.25379636883735657,0.26503366231918335,0.2762709856033325,0.2875083088874817,0.29874563217163086,0.30998295545578003,0.3212202787399292,0.33245760202407837,0.34369492530822754,0.3549322485923767,0.3661695718765259,0.37740689516067505,0.3886442184448242,0.3998815417289734,0.41111886501312256,0.42235618829727173,0.4335935115814209,0.44483083486557007,0.45606815814971924,0.467305451631546,0.4785427749156952,0.48978009819984436,0.5010174512863159,0.5122547149658203,0.5234920978546143,0.5347293615341187,0.5459667444229126,0.5572040677070618,0.5684413909912109,0.5796787142753601,0.5909160375595093,0.6021533608436584,0.6133906841278076,0.6246280074119568,0.635865330696106,0.6471026539802551,0.6583399772644043,0.6695773005485535,0.6808146238327026,0.692051887512207,0.703289270401001,0.7145265340805054,0.7257639169692993,0.7370011806488037,0.7482385635375977,0.759475827217102,0.770713210105896,0.7819504737854004,0.7931877970695496,0.8044251203536987,0.8156624436378479,0.8268997669219971,0.8381370902061462,0.8493744134902954,0.8606117367744446,0.8718490600585938,0.8830863833427429,0.8943237066268921,0.9055610299110413,0.9167983531951904],"_type":"histogram","values":[1,0,1,0,0,0,2,0,0,0,3,1,0,3,2,4,2,3,2,3,0,2,4,7,6,7,5,6,11,14,11,13,10,9,6,8,9,9,7,10,7,8,5,7,2,6,3,2,9,6,1,3,2,3,4,0,2,1,1,0,1,0,1,1]},"Stage 35 overs F1-Score":0.8416289592760181}